Language model created by QuickLM on Sat Dec  7 07:18:47 EST 2024
Copyright (c) 1996-2010 Carnegie Mellon University and Alexander I. Rudnicky

The model is in standard ARPA format, designed by Doug Paul while he was at MITRE.

The code that was used to produce this language model is available in Open Source.
Please visit http://www.speech.cs.cmu.edu/tools/ for more information

The (fixed) discount mass is 0.5. The backoffs are computed using the ratio method.
This model based on a corpus of 1 sentences and 6 words

\data\
ngram 1=6
ngram 2=6
ngram 3=5

\1-grams:
-1.1461 </s> -0.3010
-1.1461 <s> -0.2688
-0.8451 CHROME -0.2341
-1.1461 CLOSE -0.2341
-1.1461 OPEN -0.2341
-1.1461 SALAM -0.2688

\2-grams:
-0.3010 <s> OPEN 0.0000
-0.6021 CHROME CLOSE 0.0000
-0.6021 CHROME SALAM 0.0000
-0.3010 CLOSE CHROME -0.1761
-0.3010 OPEN CHROME -0.1761
-0.3010 SALAM </s> -0.3010

\3-grams:
-0.3010 <s> OPEN CHROME
-0.3010 CHROME CLOSE CHROME
-0.3010 CHROME SALAM </s>
-0.3010 CLOSE CHROME SALAM
-0.3010 OPEN CHROME CLOSE

\end\