Language model created by QuickLM on Sun Dec 15 14:13:22 EST 2024
Copyright (c) 1996-2010 Carnegie Mellon University and Alexander I. Rudnicky

The model is in standard ARPA format, designed by Doug Paul while he was at MITRE.

The code that was used to produce this language model is available in Open Source.
Please visit http://www.speech.cs.cmu.edu/tools/ for more information

The (fixed) discount mass is 0.5. The backoffs are computed using the ratio method.
This model based on a corpus of 11 sentences and 48 words

\data\
ngram 1=48
ngram 2=59
ngram 3=48

\1-grams:
-1.1047 </s> -0.3010
-1.1047 <s> -0.2621
-2.1461 ACCESS -0.2979
-2.1461 AMRAHLI112@GMAIL.COM -0.2655
-2.1461 AZTU -0.2655
-2.1461 BACK -0.2979
-2.1461 BROWSER -0.2655
-2.1461 C -0.2979
-1.8451 CHROME -0.2948
-2.1461 CLOSE -0.2948
-2.1461 D -0.2655
-2.1461 DESKTOP -0.2948
-2.1461 DISK -0.2979
-2.1461 DOCUMENTS -0.2979
-2.1461 DOWNLOADS -0.2979
-2.1461 EIGHTH -0.2979
-2.1461 ELEVENTH -0.2979
-2.1461 EXPLORER -0.2979
-2.1461 FIFTEENTH -0.2655
-2.1461 FIFTH -0.2979
-1.8451 FILE -0.2948
-2.1461 FIRST -0.2979
-2.1461 FORTH -0.2979
-2.1461 FOURTEENTH -0.2979
-2.1461 GET -0.2979
-2.1461 GMAİL -0.2979
-2.1461 GO -0.2979
-2.1461 MIRZYEVELGUN439@GMAIL.COM -0.2655
-2.1461 MURSALSAMADOVV@GMAIL.COM -0.2655
-2.1461 MUSIC -0.2979
-2.1461 NINTH -0.2979
-2.1461 OPEN -0.2948
-2.1461 PICTURES -0.2979
-2.1461 RZAFERID18@GMAIL.COM -0.2655
-2.1461 SAKINAQULIYEVA15@GMAIL.COM -0.2655
-2.1461 SALAM -0.2979
-2.1461 SECOND -0.2979
-2.1461 SELECT -0.2655
-2.1461 SEND -0.2979
-2.1461 SEVENTH -0.2979
-2.1461 SIXTH -0.2979
-2.1461 SMDOVASBIN0@GMAIL.COM -0.2655
-2.1461 TENTH -0.2979
-2.1461 THE -0.2979
-2.1461 THIRTEENTH -0.2979
-2.1461 THIRTH -0.2979
-2.1461 TWELFTH -0.2979
-2.1461 VIDEOS -0.2979

\2-grams:
-1.3424 <s> AMRAHLI112@GMAIL.COM 0.0000
-1.3424 <s> DESKTOP 0.0000
-1.3424 <s> FILE -0.1761
-1.3424 <s> FIRST 0.0000
-1.3424 <s> GO 0.0000
-1.3424 <s> MIRZYEVELGUN439@GMAIL.COM 0.0000
-1.3424 <s> MURSALSAMADOVV@GMAIL.COM 0.0000
-1.3424 <s> OPEN 0.0000
-1.3424 <s> RZAFERID18@GMAIL.COM 0.0000
-1.3424 <s> SAKINAQULIYEVA15@GMAIL.COM 0.0000
-1.3424 <s> SMDOVASBIN0@GMAIL.COM 0.0000
-0.3010 ACCESS THE 0.0000
-0.3010 AMRAHLI112@GMAIL.COM </s> -0.3010
-0.3010 AZTU </s> -0.3010
-0.3010 BACK ACCESS 0.0000
-0.3010 BROWSER </s> -0.3010
-0.3010 C DISK 0.0000
-0.6021 CHROME CLOSE 0.0000
-0.6021 CHROME SALAM 0.0000
-0.3010 CLOSE CHROME -0.1761
-0.3010 D </s> -0.3010
-0.3010 DESKTOP FILE -0.1761
-0.3010 DISK D 0.0000
-0.3010 DOCUMENTS DOWNLOADS 0.0000
-0.3010 DOWNLOADS MUSIC 0.0000
-0.3010 EIGHTH NINTH 0.0000
-0.3010 ELEVENTH TWELFTH 0.0000
-0.3010 EXPLORER DOCUMENTS 0.0000
-0.3010 FIFTEENTH </s> -0.3010
-0.3010 FIFTH SIXTH 0.0000
-0.6021 FILE AZTU 0.0000
-0.6021 FILE EXPLORER 0.0000
-0.3010 FIRST SECOND 0.0000
-0.3010 FORTH FIFTH 0.0000
-0.3010 FOURTEENTH FIFTEENTH 0.0000
-0.3010 GET SEND 0.0000
-0.3010 GMAİL GET 0.0000
-0.3010 GO BACK 0.0000
-0.3010 MIRZYEVELGUN439@GMAIL.COM </s> -0.3010
-0.3010 MURSALSAMADOVV@GMAIL.COM </s> -0.3010
-0.3010 MUSIC PICTURES 0.0000
-0.3010 NINTH TENTH 0.0000
-0.3010 OPEN CHROME -0.1761
-0.3010 PICTURES VIDEOS 0.0000
-0.3010 RZAFERID18@GMAIL.COM </s> -0.3010
-0.3010 SAKINAQULIYEVA15@GMAIL.COM </s> -0.3010
-0.3010 SALAM GMAİL 0.0000
-0.3010 SECOND THIRTH 0.0000
-0.3010 SELECT </s> -0.3010
-0.3010 SEND BROWSER 0.0000
-0.3010 SEVENTH EIGHTH 0.0000
-0.3010 SIXTH SEVENTH 0.0000
-0.3010 SMDOVASBIN0@GMAIL.COM </s> -0.3010
-0.3010 TENTH ELEVENTH 0.0000
-0.3010 THE SELECT 0.0000
-0.3010 THIRTEENTH FOURTEENTH 0.0000
-0.3010 THIRTH FORTH 0.0000
-0.3010 TWELFTH THIRTEENTH 0.0000
-0.3010 VIDEOS C 0.0000

\3-grams:
-0.3010 <s> AMRAHLI112@GMAIL.COM </s>
-0.3010 <s> DESKTOP FILE
-0.3010 <s> FILE AZTU
-0.3010 <s> FIRST SECOND
-0.3010 <s> GO BACK
-0.3010 <s> MIRZYEVELGUN439@GMAIL.COM </s>
-0.3010 <s> MURSALSAMADOVV@GMAIL.COM </s>
-0.3010 <s> OPEN CHROME
-0.3010 <s> RZAFERID18@GMAIL.COM </s>
-0.3010 <s> SAKINAQULIYEVA15@GMAIL.COM </s>
-0.3010 <s> SMDOVASBIN0@GMAIL.COM </s>
-0.3010 ACCESS THE SELECT
-0.3010 BACK ACCESS THE
-0.3010 C DISK D
-0.3010 CHROME CLOSE CHROME
-0.3010 CHROME SALAM GMAİL
-0.3010 CLOSE CHROME SALAM
-0.3010 DESKTOP FILE EXPLORER
-0.3010 DISK D </s>
-0.3010 DOCUMENTS DOWNLOADS MUSIC
-0.3010 DOWNLOADS MUSIC PICTURES
-0.3010 EIGHTH NINTH TENTH
-0.3010 ELEVENTH TWELFTH THIRTEENTH
-0.3010 EXPLORER DOCUMENTS DOWNLOADS
-0.3010 FIFTH SIXTH SEVENTH
-0.3010 FILE AZTU </s>
-0.3010 FILE EXPLORER DOCUMENTS
-0.3010 FIRST SECOND THIRTH
-0.3010 FORTH FIFTH SIXTH
-0.3010 FOURTEENTH FIFTEENTH </s>
-0.3010 GET SEND BROWSER
-0.3010 GMAİL GET SEND
-0.3010 GO BACK ACCESS
-0.3010 MUSIC PICTURES VIDEOS
-0.3010 NINTH TENTH ELEVENTH
-0.3010 OPEN CHROME CLOSE
-0.3010 PICTURES VIDEOS C
-0.3010 SALAM GMAİL GET
-0.3010 SECOND THIRTH FORTH
-0.3010 SEND BROWSER </s>
-0.3010 SEVENTH EIGHTH NINTH
-0.3010 SIXTH SEVENTH EIGHTH
-0.3010 TENTH ELEVENTH TWELFTH
-0.3010 THE SELECT </s>
-0.3010 THIRTEENTH FOURTEENTH FIFTEENTH
-0.3010 THIRTH FORTH FIFTH
-0.3010 TWELFTH THIRTEENTH FOURTEENTH
-0.3010 VIDEOS C DISK

\end\