Language model created by QuickLM on Sat Dec  7 10:56:50 EST 2024
Copyright (c) 1996-2010 Carnegie Mellon University and Alexander I. Rudnicky

The model is in standard ARPA format, designed by Doug Paul while he was at MITRE.

The code that was used to produce this language model is available in Open Source.
Please visit http://www.speech.cs.cmu.edu/tools/ for more information

The (fixed) discount mass is 0.5. The backoffs are computed using the ratio method.
This model based on a corpus of 1 sentences and 12 words

\data\
ngram 1=12
ngram 2=12
ngram 3=11

\1-grams:
-1.4150 </s> -0.3010
-1.4150 <s> -0.2840
-1.4150 AÃ‡ -0.2840
-1.4150 BAÄLA -0.2840
-1.4150 BRAUZER -0.2840
-1.1139 CHROME -0.2663
-1.4150 CLOSE -0.2663
-1.4150 GET -0.2840
-1.4150 GMAÄ°L -0.2840
-1.4150 GÃ–NDÆR -0.2840
-1.4150 OPEN -0.2663
-1.4150 SALAM -0.2840

\2-grams:
-0.3010 <s> OPEN 0.0000
-0.3010 AÃ‡ BAÄLA 0.0000
-0.3010 BAÄLA GET 0.0000
-0.3010 BRAUZER </s> -0.3010
-0.6021 CHROME CLOSE 0.0000
-0.6021 CHROME SALAM 0.0000
-0.3010 CLOSE CHROME -0.1761
-0.3010 GET GÃ–NDÆR 0.0000
-0.3010 GMAÄ°L AÃ‡ 0.0000
-0.3010 GÃ–NDÆR BRAUZER 0.0000
-0.3010 OPEN CHROME -0.1761
-0.3010 SALAM GMAÄ°L 0.0000

\3-grams:
-0.3010 <s> OPEN CHROME
-0.3010 AÃ‡ BAÄLA GET
-0.3010 BAÄLA GET GÃ–NDÆR
-0.3010 CHROME CLOSE CHROME
-0.3010 CHROME SALAM GMAÄ°L
-0.3010 CLOSE CHROME SALAM
-0.3010 GET GÃ–NDÆR BRAUZER
-0.3010 GMAÄ°L AÃ‡ BAÄLA
-0.3010 GÃ–NDÆR BRAUZER </s>
-0.3010 OPEN CHROME CLOSE
-0.3010 SALAM GMAÄ°L AÃ‡

\end\